tree
version=v4
num_class=1
num_tree_per_iteration=1
label_index=0
max_feature_idx=32
objective=regression
feature_names=dataset_num_items dataset_total_chars approximate_duplicates avg_activation_sparsity avg_grad_norm avg_grad_sparsity avg_input_length avg_output_length avg_param_change base_model_perplexity base_perplexity_std catastrophic_forgetting embedding_outlier_ratio gradient_consistency initial_loss input_length_std input_ttr io_length_ratio io_similarity landscape_flatness loss_decay_rate loss_stability output_length_std output_ngram_repetition output_ttr reference_perplexity reference_perplexity_std semantic_consistency special_char_ratio static_coverage static_skipped_count static_valid_count vocab_complexity
feature_infos=[121.58189540563995:7072.0972980475517] [0:3132812.5651993025] [0:0.0033032626056190002] [0:0.70030988478340028] [0.099999922061475399:0.1000000098569247] [0.018461537746675201:0.018461556697089002] [18.051854809999998:61.069776018543493] [9.6688853176156897:72.215057009505401] [4.5958255359357816:8.1522941147560726] [0:165909.4743] [0:7755339.5577552952] [0.50247205900000003:0.55585792048280358] [0.0352819212785076:0.1042759999081737] [0.092176986420656595:0.423444025] [5.0142425621177207:8.3533726329999993] [0:193.15979174891655] [0.92130147699999998:0.97947194299999996] [0:3.8075191085893878] [0:1.0936143588033662] [0.69244656944570404:0.91537312228672618] [0.57874044111306588:0.99234444184420845] [0.54906140000000003:0.75290282829895683] [0.2089544149199955:119.98432892686724] [0:0.0061810976873214003] [0.85874738862690125:0.99912777799999997] [0:165909.4743] [0:8164465.700441204] [5.6885452942328185e-08:1.05e-07] [0.057853643745151:0.34214196405307262] [0.99840700900000001:1.0001064173254757] [0:4.4609728592584306] [323.77425725993203:5619.1323917585878] [0:0.69528880628990075]
tree_sizes=471 497 500 498 497 497 497 500 494 497 500 503 501 500 502 499 502 499 499 499 498 500 500 499 500 499 497 499 504 502 503 504 500 504 503 501 501 507 503 507 504 506 505 502 506 508 505 505 506 500 506 502 507 507 504 508 509 507 505 509 502 504 505 510 509 505 507 511 511 508 513

Tree=0
num_leaves=4
num_cat=0
split_feature=9 0 25
split_gain=1.15131 0.179539 0.0782005
threshold=108446.74318601146 5276.8914695204048 93070.129217816851
decision_type=2 2 2
left_child=2 -2 -1
right_child=1 -3 -4
leaf_value=0.35965284946354636 0.35111277705332045 0.34483178164843142 0.3557791318158105
leaf_weight=42 27 21 20
leaf_count=42 27 21 20
internal_value=0.353971 0.348226 0.358445
internal_weight=110 48 62
internal_count=110 48 62
is_linear=0
shrinkage=1


Tree=1
num_leaves=4
num_cat=0
split_feature=21 4 19
split_gain=1.53728 0.154747 0.153744
threshold=0.60495679051749818 0.099999971198640222 0.7747857355112534
decision_type=2 2 2
left_child=1 -1 -2
right_child=2 -3 -4
leaf_value=-0.0034696525876858723 0.0012941080403160651 -0.0088795238174498078 0.0061650276589004897
leaf_weight=26 26 31 45
leaf_count=26 26 31 45
internal_value=-0.000459637 -0.00651423 0.00442406
internal_weight=128 57 71
internal_count=128 57 71
is_linear=0
shrinkage=0.05


Tree=2
num_leaves=4
num_cat=0
split_feature=21 12 32
split_gain=1.20082 0.180147 0.0548595
threshold=0.60495679051749818 0.082586781836066867 0.49388797150000002
decision_type=2 2 2
left_child=1 -1 -2
right_child=2 -3 -4
leaf_value=-0.0022815725271357226 0.0030703890389211629 -0.0082977549235026034 0.0061224424913525581
leaf_weight=23 48 29 24
leaf_count=23 48 29 24
internal_value=-1.44211e-06 -0.00573001 0.00415767
internal_weight=124 52 72
internal_count=124 52 72
is_linear=0
shrinkage=0.05


Tree=3
num_leaves=4
num_cat=0
split_feature=21 19 5
split_gain=1.03352 0.164199 0.0960477
threshold=0.60495679051749818 0.77593041210275715 0.018461551567589603
decision_type=2 2 2
left_child=2 -2 -1
right_child=1 -3 -4
leaf_value=-0.003093643374935103 0.00044231775822117922 0.0054772687601108185 -0.0078428270450482777
leaf_weight=23 24 50 23
leaf_count=23 24 50 23
internal_value=0.000230772 0.00387198 -0.00558458
internal_weight=120 74 46
internal_count=120 74 46
is_linear=0
shrinkage=0.05


Tree=4
num_leaves=4
num_cat=0
split_feature=21 19 21
split_gain=0.976453 0.138881 0.133456
threshold=0.60263164011302151 0.7747857355112534 0.58659556325532902
decision_type=2 2 2
left_child=2 -2 -1
right_child=1 -3 -4
leaf_value=-0.0071525646125276884 0.00096446942285789792 0.0057891920581460005 -0.001765604221838571
leaf_weight=29 23 44 20
leaf_count=29 23 44 20
internal_value=0.000273558 0.00417148 -0.00503309
internal_weight=116 67 49
internal_count=116 67 49
is_linear=0
shrinkage=0.05


Tree=5
num_leaves=4
num_cat=0
split_feature=2 10 5
split_gain=0.90737 0.14351 0.0733986
threshold=0.0020128078889604007 5369026.7467617607 0.018461546892004504
decision_type=2 2 2
left_child=2 -2 -1
right_child=1 -3 -4
leaf_value=0.0061483814988447273 -0.0013281280756928028 -0.0065313424915075307 0.002481132528812784
leaf_weight=22 21 38 40
leaf_count=22 21 38 40
internal_value=-0.000334442 -0.00473235 0.00385935
internal_weight=121 59 62
internal_count=121 59 62
is_linear=0
shrinkage=0.05


Tree=6
num_leaves=4
num_cat=0
split_feature=9 2 19
split_gain=0.775656 0.134678 0.0901061
threshold=103012.88982660581 0.0023270585499982001 0.7747857355112534
decision_type=2 2 2
left_child=2 -2 -1
right_child=1 -3 -4
leaf_value=0.0010756320999852117 -0.0015150867417105475 -0.0066844873502850538 0.0047356383642181759
leaf_weight=27 23 29 47
leaf_count=27 23 29 47
internal_value=0.000161666 -0.00446975 0.00343238
internal_weight=126 52 74
internal_count=126 52 74
is_linear=0
shrinkage=0.05


Tree=7
num_leaves=4
num_cat=0
split_feature=2 21 5
split_gain=0.889287 0.134783 0.044168
threshold=0.0020128078889604007 0.58734231772672829 0.018461547126514505
decision_type=2 2 2
left_child=2 -2 -1
right_child=1 -3 -4
leaf_value=0.0053770892869900262 -0.0063034491563165517 -0.0013564599842842049 0.0024976239140544619
leaf_weight=33 36 23 27
leaf_count=33 36 23 27
internal_value=-0.000108568 -0.00442971 0.00414352
internal_weight=119 59 60
internal_count=119 59 60
is_linear=0
shrinkage=0.05


Tree=8
num_leaves=4
num_cat=0
split_feature=26 0 4
split_gain=0.712289 0.143162 0.0420623
threshold=4593042.6795996232 5002.8570466286701 0.099999935278762012
decision_type=2 2 2
left_child=2 -2 -1
right_child=1 -3 -4
leaf_value=0.0051728499665235489 -0.001143463382210869 -0.0061829172348713173 0.0024408559175208215
leaf_weight=23 25 33 44
leaf_count=23 25 33 44
internal_value=-4.732e-05 -0.00406694 0.00344098
internal_weight=125 58 67
internal_count=125 58 67
is_linear=0
shrinkage=0.05


Tree=9
num_leaves=4
num_cat=0
split_feature=21 26 15
split_gain=0.610769 0.0962213 0.0624195
threshold=0.58992755042665579 4380787.6698372411 113.48190280316091
decision_type=2 2 2
left_child=-1 2 -2
right_child=1 -3 -4
leaf_value=-0.0054466649889945984 0.0011568149213086476 -1.0462165124819524e-05 0.004579082442583835
leaf_weight=34 21 30 40
leaf_count=34 21 30 40
internal_value=0.000176466 0.00231378 0.00343859
internal_weight=125 91 61
internal_count=125 91 61
is_linear=0
shrinkage=0.05


Tree=10
num_leaves=4
num_cat=0
split_feature=21 19 23
split_gain=0.616871 0.0658224 0.000144168
threshold=0.60263164011302151 0.7747857355112534 0.0031406443514488003
decision_type=2 2 2
left_child=-1 -2 -3
right_child=1 2 -4
leaf_value=-0.004473240677034483 0.0011444669715554203 0.0048931778222322461 0.0036293162478376988
leaf_weight=39 25 24 22
leaf_count=39 25 24 22
internal_value=0.000510182 0.00327166 0.0043788
internal_weight=110 71 46
internal_count=110 71 46
is_linear=0
shrinkage=0.05


Tree=11
num_leaves=4
num_cat=0
split_feature=21 2 4
split_gain=0.442183 0.108718 0.0561774
threshold=0.59510611310927686 0.0018210829307756503 0.099999979321184554
decision_type=2 2 2
left_child=2 -2 -1
right_child=1 -3 -4
leaf_value=-0.0021747736260294913 0.0036005721515975893 -0.00020036714174033652 -0.0060511027950616112
leaf_weight=20 49 30 20
leaf_count=20 49 30 20
internal_value=8.94851e-06 0.00217272 -0.00421325
internal_weight=119 79 40
internal_count=119 79 40
is_linear=0
shrinkage=0.05


Tree=12
num_leaves=4
num_cat=0
split_feature=25 2 4
split_gain=0.373704 0.0931897 0.0575463
threshold=102539.76806393611 0.0023270585499982001 0.099999938219329509
decision_type=2 2 2
left_child=2 -2 -1
right_child=1 -3 -4
leaf_value=0.004762983455189637 -0.00088007515820208947 -0.0051700029721749689 0.0013897282414190059
leaf_weight=20 24 27 35
leaf_count=20 24 27 35
internal_value=-0.00015616 -0.00320696 0.00267952
internal_weight=106 51 55
internal_count=106 51 55
is_linear=0
shrinkage=0.05


Tree=13
num_leaves=4
num_cat=0
split_feature=21 21 10
split_gain=0.540346 0.0893147 0.0290618
threshold=0.61126611897426553 0.58246974830947229 3745564.3861767729
decision_type=2 2 2
left_child=1 -1 -2
right_child=2 -3 -4
leaf_value=-0.0055436063690909318 0.0039749963670435203 -0.0015440349530939374 0.0016405815219817062
leaf_weight=27 40 30 23
leaf_count=27 40 30 23
internal_value=-6.09301e-06 -0.00350148 0.0031617
internal_weight=120 57 63
internal_count=120 57 63
is_linear=0
shrinkage=0.05


Tree=14
num_leaves=4
num_cat=0
split_feature=21 19 4
split_gain=0.404483 0.129351 0.0207837
threshold=0.58992755042665579 0.7690321168359836 0.099999979321184554
decision_type=2 2 2
left_child=2 -2 -1
right_child=1 -3 -4
leaf_value=-0.0027633800975639714 -0.00034711839321780168 0.0035439179545501253 -0.0052846122799175129
leaf_weight=21 37 49 20
leaf_count=21 37 49 20
internal_value=-6.06705e-05 0.00188512 -0.00408979
internal_weight=127 86 41
internal_count=127 86 41
is_linear=0
shrinkage=0.05


Tree=15
num_leaves=4
num_cat=0
split_feature=5 14 5
split_gain=0.315704 0.11944 0.0250279
threshold=0.018461548747450655 7.5963444336886097 0.018461546810905304
decision_type=2 2 2
left_child=2 -2 -1
right_child=1 -3 -4
leaf_value=0.0042543268782775047 -0.00077779218839342773 -0.0052786228077655491 0.001854947805232196
leaf_weight=22 46 21 26
leaf_count=22 46 21 26
internal_value=-4.09726e-05 -0.00224538 0.00301904
internal_weight=115 67 48
internal_count=115 67 48
is_linear=0
shrinkage=0.05


Tree=16
num_leaves=4
num_cat=0
split_feature=26 12 19
split_gain=0.392928 0.0448211 0.0368162
threshold=4902138.3135968475 0.086492694229203762 0.7747857355112534
decision_type=2 2 2
left_child=2 -2 -1
right_child=1 -3 -4
leaf_value=0.00099004509575024708 -0.0019636868719576993 -0.0050264465138316157 0.0033707305172307267
leaf_weight=31 27 24 36
leaf_count=31 27 24 36
internal_value=-0.000203747 -0.00347393 0.00229998
internal_weight=118 51 67
internal_count=118 51 67
is_linear=0
shrinkage=0.05


Tree=17
num_leaves=4
num_cat=0
split_feature=9 21 25
split_gain=0.354687 0.0787588 0.0162199
threshold=97001.927540474702 0.58992755042665579 80400.771579206179
decision_type=2 2 2
left_child=2 -2 -1
right_child=1 -3 -4
leaf_value=0.0034995956593420266 -0.0037026971692173949 -0.00040732410116641621 0.0016233379661571236
leaf_weight=40 40 33 20
leaf_count=40 40 33 20
internal_value=8.89098e-05 -0.00223864 0.00291104
internal_weight=133 73 60
internal_count=133 73 60
is_linear=0
shrinkage=0.05


Tree=18
num_leaves=4
num_cat=0
split_feature=21 21 26
split_gain=0.303328 0.0520864 0.0316132
threshold=0.60263164011302151 0.58246974830947229 3715248.3247092157
decision_type=2 2 2
left_child=1 -1 -2
right_child=2 -3 -4
leaf_value=-0.0044966384947586523 0.0030648132489295675 -0.0013201501268636565 0.0007859687476108471
leaf_weight=25 39 28 26
leaf_count=25 39 28 26
internal_value=-9.56577e-05 -0.00287402 0.002179
internal_weight=118 53 65
internal_count=118 53 65
is_linear=0
shrinkage=0.05


Tree=19
num_leaves=4
num_cat=0
split_feature=2 4 22
split_gain=0.238172 0.056302 0.034766
threshold=0.0022439518716216005 0.099999941611411305 85.12844268000002
decision_type=2 2 2
left_child=1 -1 -3
right_child=-2 2 -4
leaf_value=0.0029019319716220102 -0.0034436127021243534 -0.0011472470718077742 0.0013325730917013942
leaf_weight=29 41 25 30
leaf_count=29 41 25 30
internal_value=-0.000365813 0.00115929 0.000205024
internal_weight=125 84 55
internal_count=125 84 55
is_linear=0
shrinkage=0.05


Tree=20
num_leaves=4
num_cat=0
split_feature=2 26 31
split_gain=0.246786 0.0356064 0.024179
threshold=0.0020128078889604007 5905926.1506677587 4924.7500161340622
decision_type=2 2 2
left_child=2 -2 -1
right_child=1 -3 -4
leaf_value=0.00063832174831380444 -0.001313932703553953 -0.0040310014305370194 0.0027467726821972368
leaf_weight=20 32 20 47
leaf_count=20 32 20 47
internal_value=0.000143659 -0.0024153 0.00213603
internal_weight=119 52 67
internal_count=119 52 67
is_linear=0
shrinkage=0.05


Tree=21
num_leaves=4
num_cat=0
split_feature=5 0 5
split_gain=0.264621 0.0509982 0.0259101
threshold=0.018461549642629853 5832.0000000000009 0.018461546810905304
decision_type=2 2 2
left_child=2 -2 -1
right_child=1 -3 -4
leaf_value=0.0031706476696180528 -0.0015542968227528035 -0.0045593745163863613 0.0010731995023938047
leaf_weight=26 49 20 36
leaf_count=26 49 20 36
internal_value=-0.000364741 -0.00247802 0.00198914
internal_weight=131 69 62
internal_count=131 69 62
is_linear=0
shrinkage=0.05


Tree=22
num_leaves=4
num_cat=0
split_feature=19 4 14
split_gain=0.172343 0.078831 0.0152635
threshold=0.7747857355112534 0.099999962652852714 7.1390509896800545
decision_type=2 2 2
left_child=1 2 -1
right_child=-2 -3 -4
leaf_value=0.0011175445397384465 0.0024362899689994596 -0.0029871518699786607 -0.00078949299308338347
leaf_weight=20 46 38 20
leaf_count=20 46 38 20
internal_value=3.91663e-05 -0.00138747 0.000168026
internal_weight=124 78 40
internal_count=124 78 40
is_linear=0
shrinkage=0.05


Tree=23
num_leaves=4
num_cat=0
split_feature=19 5 21
split_gain=0.173201 0.0747655 0.0144926
threshold=0.7747857355112534 0.018461551093196606 0.63769644430118244
decision_type=2 2 2
left_child=1 -1 -2
right_child=2 -3 -4
leaf_value=9.1617041884141202e-05 0.0014804861731017415 -0.0032275254867272455 0.0033797663374571132
leaf_weight=36 22 31 23
leaf_count=36 22 31 23
internal_value=0.000135173 -0.00146899 0.0025036
internal_weight=112 67 45
internal_count=112 67 45
is_linear=0
shrinkage=0.05


Tree=24
num_leaves=4
num_cat=0
split_feature=5 17 12
split_gain=0.122034 0.0305565 0.0142389
threshold=0.018461548747450655 0.96411340190921357 0.069217318319337209
decision_type=2 2 2
left_child=2 -2 -1
right_child=1 -3 -4
leaf_value=0.0029414590182048933 -0.0028527954066901104 -0.00050181078211706436 0.001158896362564216
leaf_weight=20 22 36 29
leaf_count=20 22 36 29
internal_value=0.00011441 -0.0014268 0.00193075
internal_weight=107 58 49
internal_count=107 58 49
is_linear=0
shrinkage=0.05


Tree=25
num_leaves=4
num_cat=0
split_feature=2 5 5
split_gain=0.173516 0.038882 0.0216976
threshold=0.0021520019211537507 0.018461552641362303 0.018461546810905304
decision_type=2 2 2
left_child=2 -2 -1
right_child=1 -3 -4
leaf_value=0.00261839332028844 -0.00099563710764050475 -0.00399874731720913 0.00085473915969487286
leaf_weight=26 24 20 54
leaf_count=26 24 20 54
internal_value=7.07412e-05 -0.00241921 0.00145318
internal_weight=124 44 80
internal_count=124 44 80
is_linear=0
shrinkage=0.05


Tree=26
num_leaves=4
num_cat=0
split_feature=25 19 4
split_gain=0.135384 0.0282839 0.0141708
threshold=97439.225046068386 0.7320689742595422 0.09999993867909461
decision_type=2 2 2
left_child=2 -2 -1
right_child=1 -3 -4
leaf_value=0.0026202427058090129 -0.002722928384677149 -0.00049875283578277219 0.0010626197310171627
leaf_weight=30 25 33 32
leaf_count=30 25 33 32
internal_value=0.00023587 -0.00148735 0.00184594
internal_weight=120 58 62
internal_count=120 58 62
is_linear=0
shrinkage=0.05


Tree=27
num_leaves=4
num_cat=0
split_feature=9 19 13
split_gain=0.15431 0.0351055 0.0105689
threshold=99450.426291699318 0.74534907099310532 0.22065173047976464
decision_type=2 2 2
left_child=2 -2 -1
right_child=1 -3 -4
leaf_value=0.00096387645184143407 -0.0024511833236617753 -2.9787334278807977e-05 0.002409843283729922
leaf_weight=22 42 23 37
leaf_count=22 42 23 37
internal_value=6.10194e-05 -0.00160781 0.00189572
internal_weight=124 65 59
internal_count=124 65 59
is_linear=0
shrinkage=0.05


Tree=28
num_leaves=4
num_cat=0
split_feature=2 5 4
split_gain=0.134583 0.0290072 0.0190615
threshold=0.0020924790228619501 0.018461547046900801 0.099999974548843504
decision_type=2 2 2
left_child=1 -1 -2
right_child=2 -3 -4
leaf_value=0.0025349409953723183 -0.0010604761732143483 0.00036943379843640809 -0.0032500808036116805
leaf_weight=28 20 34 22
leaf_count=28 20 34 22
internal_value=-0.000100747 0.00137212 -0.00225632
internal_weight=104 62 42
internal_count=104 62 42
is_linear=0
shrinkage=0.05


Tree=29
num_leaves=4
num_cat=0
split_feature=5 21 24
split_gain=0.11641 0.0239191 0.0182116
threshold=0.018461549642629853 0.63309389913659408 0.87355937567853703
decision_type=2 2 2
left_child=1 -1 -2
right_child=2 -3 -4
leaf_value=0.00058536223211376633 -0.00034869433130509044 0.0024347634883738604 -0.0022414422392643784
leaf_weight=39 20 32 36
leaf_count=39 20 32 36
internal_value=0.000105514 0.00144113 -0.00158344
internal_weight=127 71 56
internal_count=127 71 56
is_linear=0
shrinkage=0.05


Tree=30
num_leaves=4
num_cat=0
split_feature=19 10 4
split_gain=0.121615 0.0358598 0.0124031
threshold=0.77022344513306418 5138081.8396804249 0.099999979321184554
decision_type=2 2 2
left_child=1 -1 -3
right_child=-2 2 -4
leaf_value=-3.0415580525489838e-05 0.0018237688615490512 -0.0014065952913369984 -0.0032034948468208316
leaf_weight=29 48 23 20
leaf_count=29 48 23 20
internal_value=-0.000103963 -0.0013965 -0.00229617
internal_weight=120 72 43
internal_count=120 72 43
is_linear=0
shrinkage=0.05


Tree=31
num_leaves=4
num_cat=0
split_feature=5 21 27
split_gain=0.114208 0.0213274 0.0152517
threshold=0.018461549642629853 0.63892792663922549 6.9600194809480552e-08
decision_type=2 2 2
left_child=1 -1 -2
right_child=2 -3 -4
leaf_value=0.00050938675471902449 -0.0012163914686890267 0.00253355045833381 -0.0028880869863893502
leaf_weight=36 44 20 21
leaf_count=36 44 20 21
internal_value=-0.000378882 0.00126407 -0.00179205
internal_weight=121 56 65
internal_count=121 56 65
is_linear=0
shrinkage=0.05


Tree=32
num_leaves=4
num_cat=0
split_feature=18 23 6
split_gain=0.0824458 0.020732 0.0113688
threshold=0.37252148848721611 0.004647501751533601 54.525467035000005
decision_type=2 2 2
left_child=1 -1 -2
right_child=2 -3 -4
leaf_value=-0.0005102128411609946 0.0020146039216342618 -0.0024739177998803234 0.0005269140577487027
leaf_weight=34 31 22 23
leaf_count=34 31 22 23
internal_value=2.12226e-05 -0.00131154 0.00140206
internal_weight=110 56 54
internal_count=110 56 54
is_linear=0
shrinkage=0.05


Tree=33
num_leaves=4
num_cat=0
split_feature=5 5 13
split_gain=0.101301 0.0199496 0.0153976
threshold=0.018461549642629853 0.018461552641362303 0.23941109993549034
decision_type=2 2 2
left_child=2 -2 -1
right_child=1 -3 -4
leaf_value=0.00061240172079713969 -0.00071364725445164376 -0.0025930315786972646 0.0021708304745455586
leaf_weight=36 35 24 29
leaf_count=36 35 24 29
internal_value=-2.18665e-05 -0.00150862 0.00133006
internal_weight=124 59 65
internal_count=124 59 65
is_linear=0
shrinkage=0.05


Tree=34
num_leaves=4
num_cat=0
split_feature=9 2 4
split_gain=0.0981991 0.0178258 0.00844878
threshold=103012.88982660581 0.0026662556313075004 0.099999932268202016
decision_type=2 2 2
left_child=2 -2 -1
right_child=1 -3 -4
leaf_value=0.0021385428010641289 -0.00069638710789149633 -0.0025311763930533616 0.00096794233064759867
leaf_weight=23 39 20 54
leaf_count=23 39 20 54
internal_value=0.00017191 -0.00135017 0.00134054
internal_weight=136 59 77
internal_count=136 59 77
is_linear=0
shrinkage=0.05


Tree=35
num_leaves=4
num_cat=0
split_feature=21 19 4
split_gain=0.064772 0.0382391 0.025049
threshold=0.58246974830947229 0.7747857355112534 0.099999962652852714
decision_type=2 2 2
left_child=-1 2 -2
right_child=1 -3 -4
leaf_value=-0.0025704127736389639 0.00025624871036598055 0.0014690104694454931 -0.0019219237612560392
leaf_weight=24 35 39 20
leaf_count=24 35 39 20
internal_value=-0.00030786 0.000290789 -0.00055599
internal_weight=118 94 55
internal_count=118 94 55
is_linear=0
shrinkage=0.05


Tree=36
num_leaves=4
num_cat=0
split_feature=18 24 5
split_gain=0.0575968 0.0143978 0.0123851
threshold=0.38107811750000004 0.87398545300000008 0.018461551093196606
decision_type=2 2 2
left_child=2 -2 -1
right_child=1 -3 -4
leaf_value=-0.0002018228623152633 0.001742824579029017 0.0003065885459571811 -0.0017327575407762197
leaf_weight=23 36 34 31
leaf_count=23 36 34 31
internal_value=0.000119385 0.00105937 -0.00109622
internal_weight=124 70 54
internal_count=124 70 54
is_linear=0
shrinkage=0.05


Tree=37
num_leaves=4
num_cat=0
split_feature=21 13 27
split_gain=0.0579426 0.0161548 0.0111673
threshold=0.61270209476943205 0.16031835019521237 6.9510152976155391e-08
decision_type=2 2 2
left_child=1 -1 -2
right_child=2 -3 -4
leaf_value=-0.0020358590928551096 0.0015911000113737828 -0.00033271976468540743 0.00017960178159663211
leaf_weight=25 39 31 22
leaf_count=25 39 31 22
internal_value=3.55549e-05 -0.00111543 0.00109314
internal_weight=117 56 61
internal_count=117 56 61
is_linear=0
shrinkage=0.05


Tree=38
num_leaves=4
num_cat=0
split_feature=19 4 25
split_gain=0.0458718 0.0316664 0.0115357
threshold=0.7747857355112534 0.099999962652852714 102108.44048477897
decision_type=2 2 2
left_child=1 2 -1
right_child=-2 -3 -4
leaf_value=0.0011466298855587163 0.0014346965973042339 -0.0017370204594044482 -0.00045788131015876352
leaf_weight=21 47 31 22
leaf_count=21 47 31 22
internal_value=0.000229306 -0.000545201 0.000333968
internal_weight=121 74 43
internal_count=121 74 43
is_linear=0
shrinkage=0.05


Tree=39
num_leaves=4
num_cat=0
split_feature=21 15 5
split_gain=0.0504012 0.0351891 0.0179591
threshold=0.58246974830947229 125.73250359052442 0.018461549642629853
decision_type=2 2 2
left_child=-1 2 -2
right_child=1 -3 -4
leaf_value=-0.0021730146492787059 0.00057521799732485838 0.0021066006649142275 -0.00093587816645595017
leaf_weight=20 50 25 31
leaf_count=20 50 25 31
internal_value=6.71364e-05 0.000506165 -7.46321e-06
internal_weight=126 106 81
internal_count=126 106 81
is_linear=0
shrinkage=0.05


Tree=40
num_leaves=4
num_cat=0
split_feature=2 15 26
split_gain=0.0617288 0.0136043 0.0119199
threshold=0.0018210829307756503 124.28476740000001 6083827.0143160485
decision_type=2 2 2
left_child=1 -1 -2
right_child=2 -3 -4
leaf_value=0.00064925632218041252 -0.00044884162560657724 0.0022431473075614676 -0.0018379176116507989
leaf_weight=35 50 22 22
leaf_count=35 50 22 22
internal_value=7.54045e-05 0.00129251 -0.000892644
internal_weight=129 57 72
internal_count=129 57 72
is_linear=0
shrinkage=0.05


Tree=41
num_leaves=4
num_cat=0
split_feature=19 26 19
split_gain=0.0417849 0.0142643 0.0133327
threshold=0.7747857355112534 5994624.2295254683 0.73743454517852569
decision_type=2 2 2
left_child=1 2 -1
right_child=-2 -3 -4
leaf_value=0.00067122814036251627 0.0010704120199935621 -0.0018526162298671393 -0.00091670876123670401
leaf_weight=20 50 21 35
leaf_count=20 50 21 35
internal_value=-3.99391e-05 -0.000774848 -0.000337602
internal_weight=126 76 55
internal_count=126 76 55
is_linear=0
shrinkage=0.05


Tree=42
num_leaves=4
num_cat=0
split_feature=14 19 4
split_gain=0.0429875 0.0314162 0.00971188
threshold=7.4697230895973101 0.78190684881000516 0.099999954566359253
decision_type=2 2 2
left_child=1 2 -1
right_child=-2 -3 -4
leaf_value=0.00026225320639751176 -0.0015910528119619767 0.001697589921194219 -0.0011528958365531817
leaf_weight=28 37 30 20
leaf_count=28 37 30 20
internal_value=-0.000210691 0.000455947 -0.000338887
internal_weight=115 78 48
internal_count=115 78 48
is_linear=0
shrinkage=0.05


Tree=43
num_leaves=4
num_cat=0
split_feature=26 14 6
split_gain=0.0460436 0.0143168 0.00862352
threshold=3715248.3247092157 7.5698552413551985 54.465219905000005
decision_type=2 2 2
left_child=2 -2 -1
right_child=1 -3 -4
leaf_value=0.0020692433812655509 -4.6742750715042106e-05 -0.0014789520186604932 0.00065265243562559298
leaf_weight=26 58 24 20
leaf_count=26 58 24 20
internal_value=0.000231346 -0.000478694 0.00148032
internal_weight=128 82 46
internal_count=128 82 46
is_linear=0
shrinkage=0.05


Tree=44
num_leaves=4
num_cat=0
split_feature=25 13 21
split_gain=0.0339825 0.00601766 0.00410038
threshold=93528.376416882369 0.24675028629714957 0.58246974830947229
decision_type=2 2 2
left_child=1 -1 -2
right_child=2 -3 -4
leaf_value=0.00065809372569977621 -0.0011408500163400147 0.0017936219249598006 -0.00028189802173680316
leaf_weight=29 20 21 44
leaf_count=29 20 21 44
internal_value=0.000196167 0.00116083 -0.000563742
internal_weight=114 50 64
internal_count=114 50 64
is_linear=0
shrinkage=0.05


Tree=45
num_leaves=4
num_cat=0
split_feature=14 19 27
split_gain=0.0339016 0.0242382 0.0161329
threshold=7.4697230895973101 0.78190684881000516 6.9418987495113178e-08
decision_type=2 2 2
left_child=1 2 -1
right_child=-2 -3 -4
leaf_value=0.00066318864204125327 -0.0013803992518394187 0.0013596607188648907 -0.0010656371590636311
leaf_weight=23 40 35 30
leaf_count=23 40 35 30
internal_value=-0.000191991 0.000357636 -0.000317004
internal_weight=128 88 53
internal_count=128 88 53
is_linear=0
shrinkage=0.05


Tree=46
num_leaves=4
num_cat=0
split_feature=4 15 4
split_gain=0.0253906 0.0148723 0.0107571
threshold=0.099999948351275264 128.95624397313921 0.09999998492868406
decision_type=2 2 2
left_child=-1 2 -2
right_child=1 -3 -4
leaf_value=0.0011540993152989243 -0.00028502921726080457 0.00076140453152003743 -0.0016707714774053207
leaf_weight=38 40 20 21
leaf_count=38 40 20 21
internal_value=0.000104635 -0.000395777 -0.000781341
internal_weight=119 81 61
internal_count=119 81 61
is_linear=0
shrinkage=0.05


Tree=47
num_leaves=4
num_cat=0
split_feature=25 23 17
split_gain=0.028001 0.00781372 0.00356368
threshold=93070.129217816851 0.004647501751533601 1.1089464189033837
decision_type=2 2 2
left_child=2 -2 -1
right_child=1 -3 -4
leaf_value=0.0014163662466931525 -0.00011218112564630818 -0.0012316762686532456 0.00051669601317288734
leaf_weight=27 42 24 21
leaf_count=27 42 24 21
internal_value=0.000133999 -0.000531578 0.00104134
internal_weight=114 66 48
internal_count=114 66 48
is_linear=0
shrinkage=0.05


Tree=48
num_leaves=4
num_cat=0
split_feature=18 12 18
split_gain=0.0492926 0.0127278 0.00708773
threshold=0.44325943450000005 0.077079943440849522 0.99021475322924257
decision_type=2 2 2
left_child=1 -1 -2
right_child=2 -3 -4
leaf_value=0.00047827409031854658 0.0010119609001916477 -0.00090415404602994234 0.0023046716156861057
leaf_weight=25 25 46 22
leaf_count=25 25 46 22
internal_value=0.000413935 -0.000417502 0.00165247
internal_weight=118 71 47
internal_count=118 71 47
is_linear=0
shrinkage=0.05


Tree=49
num_leaves=4
num_cat=0
split_feature=26 31 26
split_gain=0.0244719 0.0107361 0.0113501
threshold=4538178.9231585767 4896.0500951234635 3455289.7228406002
decision_type=2 2 2
left_child=1 -1 -3
right_child=-2 2 -4
leaf_value=-0.00031656130616153989 -0.00079063928765558218 0.0017914989124983552 0.00025669160700635986
leaf_weight=20 51 24 24
leaf_count=20 51 24 24
internal_value=2.86978e-05 0.000645753 0.001045
internal_weight=119 68 48
internal_count=119 68 48
is_linear=0
shrinkage=0.05


Tree=50
num_leaves=4
num_cat=0
split_feature=5 13 8
split_gain=0.0444852 0.0199428 0.00406695
threshold=0.018461552641362303 0.23941109993549034 5.281860352032969
decision_type=2 2 2
left_child=1 2 -1
right_child=-2 -3 -4
leaf_value=0.0002892682210774089 -0.0023484096396714452 0.0014750674997112188 -0.00044612535523440414
leaf_weight=28 20 22 53
leaf_count=28 20 22 53
internal_value=-0.000250742 0.000175236 -0.000191488
internal_weight=123 103 81
internal_count=123 103 81
is_linear=0
shrinkage=0.05


Tree=51
num_leaves=4
num_cat=0
split_feature=19 5 20
split_gain=0.0307825 0.0220284 0.0107794
threshold=0.7690321168359836 0.018461552000697202 0.92584983500000007
decision_type=2 2 2
left_child=1 -1 -2
right_child=2 -3 -4
leaf_value=0.00010668159326693665 0.0004716434427819243 -0.0018005456709626899 0.0019504472192022064
leaf_weight=44 32 22 20
leaf_count=44 32 22 20
internal_value=0.000167326 -0.000546446 0.00106648
internal_weight=118 66 52
internal_count=118 66 52
is_linear=0
shrinkage=0.05


Tree=52
num_leaves=4
num_cat=0
split_feature=11 15 2
split_gain=0.0177976 0.0227436 0.0236314
threshold=0.50943604670603404 117.72202825000001 0.0014868726128989503
decision_type=2 2 2
left_child=-1 -2 -3
right_child=1 2 -4
leaf_value=0.0013804136278023097 -0.0016568179109266827 0.0015133882019047937 -0.00032685028272680941
leaf_weight=21 20 23 63
leaf_count=21 20 23 63
internal_value=8.57721e-05 -0.000181218 0.000177045
internal_weight=127 106 86
internal_count=127 106 86
is_linear=0
shrinkage=0.05


Tree=53
num_leaves=4
num_cat=0
split_feature=5 20 14
split_gain=0.0210826 0.00814303 0.00575913
threshold=0.018461550588371702 0.82845737361920069 6.8611677237621347
decision_type=2 2 2
left_child=1 2 -1
right_child=-2 -3 -4
leaf_value=0.00084860066084989491 -0.00076353481144535032 0.0013303516722468582 -0.00021859006010345184
leaf_weight=20 48 23 31
leaf_count=20 48 23 31
internal_value=4.34225e-05 0.000570056 0.000208187
internal_weight=122 74 51
internal_count=122 74 51
is_linear=0
shrinkage=0.05


Tree=54
num_leaves=4
num_cat=0
split_feature=19 4 29
split_gain=0.0186962 0.012316 0.00651263
threshold=0.7690321168359836 0.099999980584257006 0.99961670451749329
decision_type=2 2 2
left_child=1 -1 -2
right_child=2 -3 -4
leaf_value=2.9979852129230803e-05 0.00021447614077866697 -0.0012856998170415561 0.0013913474564906209
leaf_weight=52 23 26 24
leaf_count=52 23 26 24
internal_value=5.40171e-05 -0.000419303 0.000831898
internal_weight=125 78 47
internal_count=125 78 47
is_linear=0
shrinkage=0.05


Tree=55
num_leaves=4
num_cat=0
split_feature=21 15 23
split_gain=0.0188826 0.00922315 0.00739729
threshold=0.59368949000060589 125.73250359052442 0.004647501751533601
decision_type=2 2 2
left_child=2 -2 -1
right_child=1 -3 -4
leaf_value=-0.0002875642951535569 -4.506450466085541e-05 0.0010340891731902956 -0.0016314869447212135
leaf_weight=21 58 29 20
leaf_count=21 58 29 20
internal_value=-9.47579e-05 0.000322317 -0.000966372
internal_weight=128 87 41
internal_count=128 87 41
is_linear=0
shrinkage=0.05


Tree=56
num_leaves=4
num_cat=0
split_feature=18 4 30
split_gain=0.0138231 0.0104368 0.00521323
threshold=0.99021475322924257 0.099999948351275264 1.8940478315000002
decision_type=2 2 2
left_child=1 -1 -3
right_child=-2 2 -4
leaf_value=0.00049163356811429064 0.0013009192200288885 -0.0011467469617768768 -0.00019049160739783438
leaf_weight=44 20 20 46
leaf_count=44 20 20 46
internal_value=0.000125252 -9.82998e-05 -0.000493057
internal_weight=130 110 66
internal_count=130 110 66
is_linear=0
shrinkage=0.05


Tree=57
num_leaves=4
num_cat=0
split_feature=20 13 25
split_gain=0.0300549 0.0186992 0.00793379
threshold=0.9340278337028648 0.15426272106912173 93070.129217816851
decision_type=2 2 2
left_child=1 -1 -3
right_child=-2 2 -4
leaf_value=-0.0012079160069040354 0.0018957983680246843 0.00086561519185066103 -0.00018039794826604934
leaf_weight=30 20 30 43
leaf_count=30 20 30 43
internal_value=0.000171475 -0.000178354 0.000255359
internal_weight=123 103 73
internal_count=123 103 73
is_linear=0
shrinkage=0.05


Tree=58
num_leaves=4
num_cat=0
split_feature=10 22 21
split_gain=0.0103176 0.00871411 0.00638834
threshold=5098168.363920345 86.8792341153884 0.62823712853191094
decision_type=2 2 2
left_child=1 2 -1
right_child=-2 -3 -4
leaf_value=0.00041909538628934922 -0.00067317050734134185 0.0011086981045082213 -0.00071097006889017807
leaf_weight=28 42 22 21
leaf_count=28 42 22 21
internal_value=-6.08233e-05 0.000305729 -6.97515e-05
internal_weight=113 71 49
internal_count=113 71 49
is_linear=0
shrinkage=0.05


Tree=59
num_leaves=4
num_cat=0
split_feature=6 27 9
split_gain=0.0155511 0.0246679 0.00723481
threshold=53.316282150801669 6.9906580977225197e-08 76354.812674625093
decision_type=2 2 2
left_child=-1 2 -2
right_child=1 -3 -4
leaf_value=0.0011566011724188803 0.00091293199941338524 -0.0018099358272073525 -0.00016121942711423243
leaf_weight=22 20 20 61
leaf_count=22 20 20 61
internal_value=-1.79908e-05 -0.000282673 0.000111902
internal_weight=123 101 81
internal_count=123 101 81
is_linear=0
shrinkage=0.05


Tree=60
num_leaves=4
num_cat=0
split_feature=4 22 25
split_gain=0.0316186 0.0235017 0.0128026
threshold=0.09999998492868406 85.12844268000002 79733.677535930779
decision_type=2 2 2
left_child=2 -2 -1
right_child=1 -3 -4
leaf_value=0.0014494062932815565 -0.0024212478998205849 -5.3146942941979932e-05 5.7647063974097069e-05
leaf_weight=22 20 21 59
leaf_count=22 20 21 59
internal_value=-0.000123742 -0.00123846 0.000448722
internal_weight=122 41 81
internal_count=122 41 81
is_linear=0
shrinkage=0.05


Tree=61
num_leaves=4
num_cat=0
split_feature=19 6 10
split_gain=0.0277348 0.00981633 0.00778473
threshold=0.79357163579465706 54.987399913444712 4245144.055587559
decision_type=2 2 2
left_child=1 2 -1
right_child=-2 -3 -4
leaf_value=0.00071698920085812767 0.0016308418596568315 -0.0012557042202734877 -0.00035652541652477036
leaf_weight=23 22 20 56
leaf_count=23 22 20 56
internal_value=6.57817e-05 -0.00029484 -3.89276e-05
internal_weight=121 99 79
internal_count=121 99 79
is_linear=0
shrinkage=0.05


Tree=62
num_leaves=4
num_cat=0
split_feature=5 16 25
split_gain=0.0242992 0.00896437 0.00365154
threshold=0.018461552641362303 0.9462083495000001 80400.771579206179
decision_type=2 2 2
left_child=1 -1 -3
right_child=-2 2 -4
leaf_value=0.0011354247306439059 -0.0014787029559639368 0.00062330738624690905 -0.00015594642238695843
leaf_weight=26 21 20 52
leaf_count=26 21 20 52
internal_value=2.45775e-05 0.000358392 6.60862e-05
internal_weight=119 98 72
internal_count=119 98 72
is_linear=0
shrinkage=0.05


Tree=63
num_leaves=4
num_cat=0
split_feature=28 0 12
split_gain=0.0216856 0.0110151 0.00430985
threshold=0.09145512265569726 2839.1309740887868 0.087705560696289472
decision_type=2 2 2
left_child=-1 -2 -3
right_child=1 2 -4
leaf_value=-0.0016213066399690104 0.00097661345142922894 2.4739325476041292e-05 -0.00078454465017950342
leaf_weight=21 26 65 21
leaf_count=21 26 65 21
internal_value=-0.000186025 9.50564e-05 -0.000179623
internal_weight=133 112 86
internal_count=133 112 86
is_linear=0
shrinkage=0.05


Tree=64
num_leaves=4
num_cat=0
split_feature=21 12 13
split_gain=0.00865642 0.00586752 0.00439377
threshold=0.6213037157774729 0.067690418199663524 0.18007554068297388
decision_type=2 2 2
left_child=2 -2 -1
right_child=1 -3 -4
leaf_value=-0.00051213090999690971 2.9071778650783628e-06 0.0010500172661522811 0.00025622156658022094
leaf_weight=46 23 31 30
leaf_count=46 23 31 30
internal_value=0.000133916 0.000612188 -0.000209445
internal_weight=130 54 76
internal_count=130 54 76
is_linear=0
shrinkage=0.05


Tree=65
num_leaves=4
num_cat=0
split_feature=4 1 23
split_gain=0.025134 0.00864725 0.00349652
threshold=0.09999998492868406 2700964.7521027182 0.0032039329109789004
decision_type=2 2 2
left_child=1 -1 -3
right_child=-2 2 -4
leaf_value=0.0011231621446561556 -0.0013286402116885739 0.000546144197107337 -0.00021039285464082372
leaf_weight=21 33 20 55
leaf_count=21 33 20 55
internal_value=-0.000159824 0.000251511 -4.11805e-06
internal_weight=129 96 75
internal_count=129 96 75
is_linear=0
shrinkage=0.05


Tree=66
num_leaves=4
num_cat=0
split_feature=24 10 1
split_gain=0.0130717 0.00462331 0.00167335
threshold=0.87439877950000011 4455572.6875571935 2774066.9495000006
decision_type=2 2 2
left_child=1 -1 -3
right_child=-2 2 -4
leaf_value=0.00064275972971056662 -0.00092539615816349401 0.0002510202752351428 -0.00034459600989336013
leaf_weight=40 31 20 26
leaf_count=40 31 20 26
internal_value=-6.17983e-05 0.000256557 -8.58014e-05
internal_weight=117 86 46
internal_count=117 86 46
is_linear=0
shrinkage=0.05


Tree=67
num_leaves=4
num_cat=0
split_feature=5 17 12
split_gain=0.00812143 0.00924627 0.00418139
threshold=0.018461553107512105 1.2056327870000001 0.074898257046355915
decision_type=2 2 2
left_child=1 2 -1
right_child=-2 -3 -4
leaf_value=0.0009159209521452862 -0.00096093522892756907 -0.00057747182484704622 0.00011512950386954906
leaf_weight=26 21 33 42
leaf_count=26 21 33 42
internal_value=-9.01966e-05 9.8494e-05 0.000430151
internal_weight=122 101 68
internal_count=122 101 68
is_linear=0
shrinkage=0.05


Tree=68
num_leaves=4
num_cat=0
split_feature=5 4 10
split_gain=0.00996973 0.00842088 0.00410096
threshold=0.018461546585113505 0.099999985797991062 3886671.2548141466
decision_type=2 2 2
left_child=-1 2 -2
right_child=1 -3 -4
leaf_value=0.0010084756092272652 0.00064682481410589234 -0.00098525882834413409 -0.00013514059585671226
leaf_weight=21 22 23 61
leaf_count=21 22 23 61
internal_value=3.93633e-05 -0.000160261 7.73602e-05
internal_weight=127 106 83
internal_count=127 106 83
is_linear=0
shrinkage=0.05


Tree=69
num_leaves=4
num_cat=0
split_feature=18 14 18
split_gain=0.0267953 0.00606095 0.00408612
threshold=0.94625152706675786 6.9817594445577589 0.3177641100000001
decision_type=2 2 2
left_child=1 -1 -3
right_child=-2 2 -4
leaf_value=0.00043549548741744683 0.0016338334279134871 -8.4058388419243574e-05 -0.00094056586482717339
leaf_weight=36 29 42 20
leaf_count=36 29 42 20
internal_value=0.000326265 -7.32632e-05 -0.000370895
internal_weight=127 98 62
internal_count=127 98 62
is_linear=0
shrinkage=0.05


Tree=70
num_leaves=4
num_cat=0
split_feature=5 13 23
split_gain=0.0154182 0.00754041 0.00531318
threshold=0.018461553389287504 0.22065173047976464 0.0045202595269769009
decision_type=2 2 2
left_child=1 2 -1
right_child=-2 -3 -4
leaf_value=-0.00039705410942487003 -0.0012078567339234394 0.00078884007503802426 0.0005243647883010756
leaf_weight=44 21 39 23
leaf_count=44 21 39 23
internal_value=-2.35879e-06 0.000245523 -7.76865e-05
internal_weight=127 106 67
internal_count=127 106 67
is_linear=0
shrinkage=0.05


end of trees

feature_importances:
avg_grad_sparsity=25
loss_stability=25
avg_grad_norm=21
landscape_flatness=21
approximate_duplicates=12
reference_perplexity=10
reference_perplexity_std=10
gradient_consistency=8
base_perplexity_std=7
embedding_outlier_ratio=7
initial_loss=7
io_similarity=7
base_model_perplexity=6
input_length_std=6
output_ngram_repetition=6
dataset_num_items=4
avg_input_length=4
semantic_consistency=4
io_length_ratio=3
loss_decay_rate=3
output_length_std=3
output_ttr=3
dataset_total_chars=2
static_valid_count=2
avg_param_change=1
catastrophic_forgetting=1
input_ttr=1
special_char_ratio=1
static_coverage=1
static_skipped_count=1
vocab_complexity=1

parameters:
[boosting: gbdt]
[objective: regression]
[metric: rmse]
[tree_learner: serial]
[device_type: cpu]
[data_sample_strategy: bagging]
[data: ]
[valid: ]
[num_iterations: 140]
[learning_rate: 0.05]
[num_leaves: 4]
[num_threads: 2]
[seed: 42]
[deterministic: 0]
[force_col_wise: 0]
[force_row_wise: 0]
[histogram_pool_size: -1]
[max_depth: -1]
[min_data_in_leaf: 20]
[min_sum_hessian_in_leaf: 0.001]
[bagging_fraction: 0.6]
[pos_bagging_fraction: 1]
[neg_bagging_fraction: 1]
[bagging_freq: 1]
[bagging_seed: 400]
[bagging_by_query: 0]
[feature_fraction: 0.6]
[feature_fraction_bynode: 1]
[feature_fraction_seed: 30056]
[extra_trees: 0]
[extra_seed: 12879]
[early_stopping_round: 0]
[early_stopping_min_delta: 0]
[first_metric_only: 0]
[max_delta_step: 0]
[lambda_l1: 0]
[lambda_l2: 1]
[linear_lambda: 0]
[min_gain_to_split: 0]
[drop_rate: 0.1]
[max_drop: 50]
[skip_drop: 0.5]
[xgboost_dart_mode: 0]
[uniform_drop: 0]
[drop_seed: 17869]
[top_rate: 0.2]
[other_rate: 0.1]
[min_data_per_group: 100]
[max_cat_threshold: 32]
[cat_l2: 10]
[cat_smooth: 10]
[max_cat_to_onehot: 4]
[top_k: 20]
[monotone_constraints: ]
[monotone_constraints_method: basic]
[monotone_penalty: 0]
[feature_contri: ]
[forcedsplits_filename: ]
[refit_decay_rate: 0.9]
[cegb_tradeoff: 1]
[cegb_penalty_split: 0]
[cegb_penalty_feature_lazy: ]
[cegb_penalty_feature_coupled: ]
[path_smooth: 0]
[interaction_constraints: ]
[verbosity: 1]
[saved_feature_importance_type: 0]
[use_quantized_grad: 0]
[num_grad_quant_bins: 4]
[quant_train_renew_leaf: 0]
[stochastic_rounding: 1]
[linear_tree: 0]
[max_bin: 255]
[max_bin_by_feature: ]
[min_data_in_bin: 3]
[bin_construct_sample_cnt: 200000]
[data_random_seed: 175]
[is_enable_sparse: 1]
[enable_bundle: 1]
[use_missing: 1]
[zero_as_missing: 0]
[feature_pre_filter: 1]
[pre_partition: 0]
[two_round: 0]
[header: 0]
[label_column: ]
[weight_column: ]
[group_column: ]
[ignore_column: ]
[categorical_feature: ]
[forcedbins_filename: ]
[precise_float_parser: 0]
[parser_config_file: ]
[objective_seed: 16083]
[num_class: 1]
[is_unbalance: 0]
[scale_pos_weight: 1]
[sigmoid: 1]
[boost_from_average: 1]
[reg_sqrt: 0]
[alpha: 0.9]
[fair_c: 1]
[poisson_max_delta_step: 0.7]
[tweedie_variance_power: 1.5]
[lambdarank_truncation_level: 30]
[lambdarank_norm: 1]
[label_gain: ]
[lambdarank_position_bias_regularization: 0]
[eval_at: ]
[multi_error_top_k: 1]
[auc_mu_weights: ]
[num_machines: 1]
[local_listen_port: 12400]
[time_out: 120]
[machine_list_filename: ]
[machines: ]
[gpu_platform_id: -1]
[gpu_device_id: -1]
[gpu_use_dp: 0]
[num_gpu: 1]

end of parameters

pandas_categorical:[]
